net
{
    node_size = (0 0);
}

node vVisitToAsia
{
    label = "vVisitToAsia";
    states = ("0" "1");
}

node vTuberculosis
{
    label = "vTuberculosis";
    states = ("0" "1");
}

node vSmoking
{
    label = "vSmoking";
    states = ("0" "1");
}

node vLungCancer
{
    label = "vLungCancer";
    states = ("0" "1");
}

node vTbOrCa
{
    label = "vTbOrCa";
    states = ("0" "1");
}

node vXRay
{
    label = "vXRay";
    states = ("0" "1");
}

node vBronchitis
{
    label = "vBronchitis";
    states = ("0" "1");
}

node vDyspnea
{
    label = "vDyspnea";
    states = ("0" "1");
}

node H0
{
    label = "H0";
    states = ("0" "1");
}

node H1
{
    label = "H1";
    states = ("0" "1");
}

potential (vVisitToAsia | H1)
{
    data
     = (( 0.737386 0.262614 )	%  H1=0
	( 0.970119 0.0298814 ));	%  H1=1
}

potential (vTuberculosis | H1)
{
    data
     = (( 0.608209 0.391791 )	%  H1=0
	( 0.979921 0.0200791 ));	%  H1=1
}

potential (vSmoking | H1)
{
    data
     = (( 0.277429 0.722571 )	%  H1=0
	( 0.576661 0.423339 ));	%  H1=1
}

potential (vLungCancer | H1)
{
    data
     = (( 0.476579 0.523421 )	%  H1=0
	( 0.979948 0.0200524 ));	%  H1=1
}

potential (vTbOrCa | H0)
{
    data
     = (( 0.970545 0.0294547 )	%  H0=0
	( 0.875291 0.124709 ));	%  H0=1
}

potential (vXRay | H1)
{
    data
     = (( 0.276621 0.723379 )	%  H1=0
	( 0.945312 0.0546884 ));	%  H1=1
}

potential (vBronchitis | H0)
{
    data
     = (( 0.843087 0.156913 )	%  H0=0
	( 0.0685298 0.93147 ));	%  H0=1
}

potential (vDyspnea | H0)
{
    data
     = (( 0.946272 0.053728 )	%  H0=0
	( 0.0932945 0.906706 ));	%  H0=1
}

potential (H0 | H1)
{
    data
     = (( 0.266807 0.733193 )	%  H1=0
	( 0.656248 0.343752 ));	%  H1=1
}

potential (H1)
{
    data = ( 0.054013 0.945987 );
}
