net
{
    node_size = (0 0);
}

node vVisitToAsia
{
    label = "vVisitToAsia";
    states = ("0" "1");
}

node vTuberculosis
{
    label = "vTuberculosis";
    states = ("0" "1");
}

node vSmoking
{
    label = "vSmoking";
    states = ("0" "1");
}

node vLungCancer
{
    label = "vLungCancer";
    states = ("0" "1");
}

node vTbOrCa
{
    label = "vTbOrCa";
    states = ("0" "1");
}

node vXRay
{
    label = "vXRay";
    states = ("0" "1");
}

node vBronchitis
{
    label = "vBronchitis";
    states = ("0" "1");
}

node vDyspnea
{
    label = "vDyspnea";
    states = ("0" "1");
}

node H0
{
    label = "H0";
    states = ("0" "1");
}

node H1
{
    label = "H1";
    states = ("0" "1");
}

potential (vVisitToAsia | H0)
{
    data
     = (( 0.955331 0.0446688 )	%  H0=0
	( 0.951028 0.0489717 ));	%  H0=1
}

potential (vTuberculosis | H0)
{
    data
     = (( 0.970216 0.0297838 )	%  H0=0
	( 0.926558 0.0734415 ));	%  H0=1
}

potential (vSmoking | H0)
{
    data
     = (( 0.636696 0.363304 )	%  H0=0
	( 0.422168 0.577832 ));	%  H0=1
}

potential (vLungCancer | H0)
{
    data
     = (( 0.970216 0.0297838 )	%  H0=0
	( 0.902078 0.0979221 ));	%  H0=1
}

potential (vTbOrCa | H0)
{
    data
     = (( 0.970216 0.0297842 )	%  H0=0
	( 0.877598 0.122402 ));	%  H0=1
}

potential (vXRay | H0)
{
    data
     = (( 0.948654 0.0513464 )	%  H0=0
	( 0.815121 0.184879 ));	%  H0=1
}

potential (vBronchitis | H0)
{
    data
     = (( 0.858892 0.141108 )	%  H0=0
	( 0.0568948 0.943105 ));	%  H0=1
}

potential (vDyspnea | H0)
{
    data
     = (( 0.938135 0.0618647 )	%  H0=0
	( 0.122472 0.877528 ));	%  H0=1
}

potential (H0 | H1)
{
    data
     = (( 0.622743 0.377257 )	%  H1=0
	( 0.620723 0.379277 ));	%  H1=1
}

potential (H1)
{
    data = ( 0.520768 0.479232 );
}
