net
{
    node_size = (0 0);
}

node DiscreteVar0
{
    label = "DiscreteVar0";
    states = ("0.0" "1.0");
}

continuous node GaussianVar0
{
}

continuous node GaussianVar1
{
}

node ClassVar
{
    label = "ClassVar";
    states = ("0.0" "1.0");
}

potential (DiscreteVar0 | ClassVar)
{
    data
     = (( 0.678793 0.321207 )	%  ClassVar=0.0
	( 0.527389 0.472611 ));	%  ClassVar=1.0
}

potential (GaussianVar0 | ClassVar)
{
    data
     = ( normal ( 9.84575, 4.35189 )	%  ClassVar=0.0
	 normal ( -16.8341, 10.3484 ) );	%  ClassVar=1.0
}

potential (GaussianVar1 | ClassVar)
{
    data
     = ( normal ( -3.90167, 1.96602 )	%  ClassVar=0.0
	 normal ( -6.43389, 0.732381 ) );	%  ClassVar=1.0
}

potential (ClassVar)
{
    data = ( 0.390712 0.609288 );
}
